,0,1,2,3,4,5,6,7,8,9,10,11,12,13,14,15,16,17,18,19,20,21,22,23,24,25,26,27,28,29,30,31,32,33,34,35,36,37,38,39,40,41,42,43,44,45,46,47,48,49,50,51,52,53,54,55,56,57,58,59,60,61,62,63,64,65,66,67,68,69,70,71,72,73,74,75,76,77,78,79,80,81,82,83,84,85,86,87,88,89,90,91,92,93,94,95,96,97,98,99,100,101,102,103,104,105,106,107,108,109,110,111,112,113,114,115,116,117,118,119,120,121,122,123,124,125,126,127,128,129,130,131,132,133,134,135,136,137,138,139,140,141,142,143,144,145,146,147,148,149,150,151,152,153,154,155,156,157,158,159,160,161,162,163,164,165,166,167,168,169,170,171,172,173,174,175,176,177,178,179,180,181,182,183,184,185,186,187,188,189,190,191,192,193,194,195,196,197,198,199,200,201,202,203,204,205,206,207,208,209,210,211,212,213,214,215,216,217,218,219,220,221,222,223,224,225,226,227,228,229,230,231,232,233,234,235,236,237,238,239,240,241,242,243,244,245,246,247,248,249,250,251,252,253,254,255,256,257,258,259,260,261,262,263,264,265,266,267,268,269,270,271,272,273,274,275,276,277,278,279,280,281,282,283,284,285,286,287,288,289,290,291,292,293,294,295,296,297,298,299,300,301,302,303,304,305,306,307,308,309,310,311,312,313,314,315,316,317,318,319,320,321,322,323,324,325,326,327,328,329,330,331,332,333,334,335,336,337,338,339,340,341,342,343,344,345,346,347,348,349,350,351,352,353,354,355,356,357,358,359,360,361,362,363,364,365,366,367,368,369,370,371,372,373,374,375,376,377,378,379,380,381,382,383
hr,-0.098955244,0.08789588,-0.036342844,0.06291447,0.021194533,-0.014782942,0.034935582,-0.033320766,-0.012897626,0.004642415,-0.021649295,-0.051039655,-0.012407972,-0.023995088,-0.025495391,0.017381566,0.008143569,0.007864132,0.030103566,-0.06979754,-0.018968737,0.058903415,-0.021057142,-0.08091157,0.011034288,0.015441829,-0.018533474,0.10409393,-0.043542907,-0.07008659,0.0033550693,-0.047277898,0.03268087,0.007206284,0.0051387586,0.025586057,0.009793404,-0.054114025,-0.012972253,0.00849624,-0.03532109,-0.050365325,-0.04011474,0.010399713,-0.01570603,0.00092129176,0.049545813,-0.01814477,-0.020557791,0.07407045,-0.011769805,-0.019302182,0.03372216,0.06925624,0.048110124,-0.006458353,0.0569776,-0.016901815,-0.03622921,-0.013334708,-0.121422,-0.05192195,-0.06611431,-0.020528339,0.048320998,-0.081553,-0.032651506,0.023958324,-0.024672108,-0.05413105,-0.0138182845,-0.064120024,-0.05811046,-0.0034180298,0.06741414,-0.0293783,0.042844955,0.003068852,0.10961216,-0.09340753,0.052412618,-0.016209764,-0.056996547,0.074119434,0.006903032,-0.020403914,0.013040408,0.0792449,0.022359075,0.0059132986,0.007352698,0.0015965863,0.016601032,-0.015843336,-0.031453867,-0.012816654,-0.00971974,0.15690665,-0.08768152,0.18836486,0.010351329,0.03970924,-0.06523481,0.00540271,-0.008542532,-0.0074995924,0.020311637,0.11124181,0.040264264,-0.011169636,-0.049404,0.028982544,-0.069091044,0.033698436,-0.0014186132,-0.00069279195,-0.0015665095,0.028561328,0.042068213,-0.02035997,0.032490563,0.061631367,-0.017426752,0.0042853802,-0.028251432,-0.11939817,-0.006274589,-4.6557908e-33,0.05483001,0.042053223,0.037357606,-0.03799635,0.033611286,0.009355508,-0.037042525,0.028365318,0.081435315,0.047906157,-0.067680046,0.034156058,-0.003983223,-0.035373617,-0.06311342,-0.017167931,0.04454777,0.17622241,-0.022825463,0.08813583,-0.04415765,0.039837617,-0.02346734,0.01632981,-0.02316172,0.05013469,-0.035985425,-0.060369506,0.05874887,0.033892326,-0.023583604,0.007399909,0.010595946,-0.028150864,0.0001641848,-0.049565583,-0.056540728,0.004786866,0.0077588297,-0.04847392,-0.061652288,0.03515539,0.0758232,0.014238198,0.044930946,0.07360026,0.08912792,0.052983988,-0.043202553,0.17011862,-0.09011736,-0.04910776,0.07378631,-0.0051990803,-0.01244554,-0.07128301,0.072113626,0.062590085,0.024253322,-0.02072648,0.011009451,0.0586999,-0.056918066,-0.0048971986,-0.030383978,-0.057818364,-0.028311636,-0.010986572,0.098583356,0.0645495,0.00075898704,0.039771933,0.053615607,0.07126915,-0.08212,0.03026738,0.040031094,0.055592373,-0.034664787,-0.021019425,-0.081692725,0.01875089,-0.000121984245,-0.024152743,0.11032506,0.0015005429,-0.03646309,0.006916757,-0.0196178,0.014950385,-0.0436689,-0.015115029,0.018124042,0.048319895,-0.028505115,3.8267102e-33,0.0064586406,0.0003441417,-0.028448986,-0.02219769,0.011883586,0.075373925,0.01856049,0.04392832,-0.027903425,0.040125772,0.03047656,-0.0787724,0.010803833,0.0074627185,-0.011188351,0.029439181,0.02862263,-0.012138254,-0.054610062,0.08493523,-0.01586465,-0.017943213,-0.010128483,0.048477016,0.076552115,0.038454685,0.0748084,-0.037755087,-0.044286422,0.003188545,-0.01236676,-0.058755744,-0.08041081,0.061701104,-0.0032807768,0.012855675,0.009889241,0.089822255,0.018431667,0.050169267,0.056774892,-0.032457933,0.010064253,0.06098498,-0.0076663997,0.03796249,-0.06466858,-0.055918537,-0.13201357,-0.02743685,-0.04028468,-0.093505025,0.022649271,-0.06813683,-0.0674122,-0.040580772,-0.059804328,0.010110127,-0.026712533,-0.035938896,0.06937404,0.05485737,-0.0051708347,0.14360145,-0.10261875,-0.011889583,0.028253973,-0.084894866,-0.08273293,0.02313737,0.0411277,0.043834787,-0.032987516,-0.0015175096,-0.050033793,-0.026877504,0.018979127,-0.06352653,-0.052360643,-0.02543681,-0.10396034,-0.044256445,-0.02055477,0.025330016,-0.00911531,0.06671167,0.0048711267,-0.007463463,-0.024408909,-0.06968565,-0.019157495,0.021354541,-0.03144551,0.10773173,-0.0054346565,-1.1303639e-08,0.002552192,0.01478025,0.02481581,-0.030098783,0.0399045,-0.030102808,-0.059152495,0.0021551827,0.028607944,0.10050597,-0.015342541,-0.036504675,0.055785675,-0.056210537,0.06362969,-0.055382997,0.029750835,0.06170384,0.01221292,-0.041417416,0.061521683,0.043215137,-0.009006242,0.09043641,-0.00449977,-0.031004086,0.020727694,-0.0046965224,0.10079567,0.003504229,0.05504619,0.09166167,-0.03503166,-0.11226827,-0.025212372,-0.06434943,-0.0060318937,-0.05819053,-0.016136859,0.009577118,-0.011808573,0.0103003,-0.0011084375,-0.042501755,0.057650995,-0.061541185,-0.015224808,-0.028255386,-0.029132178,-0.10683431,0.04546065,0.0040381774,0.015847078,-0.025022289,0.019154765,0.048800483,0.037100397,-0.016991176,-0.08427227,0.020281635,0.17622018,-0.024005199,0.030993404,0.045794573
personal,0.0026596652,0.04254007,0.04021102,0.0027359556,-0.0223112,-0.04497437,0.15732571,0.0952865,0.025125101,0.033400092,0.056677986,-0.038897138,-0.041198265,-0.02655807,0.03966471,0.00594813,0.071506836,-0.0910502,-0.041370954,0.010440634,-0.12326664,0.01567934,0.027515035,-0.06084687,-0.049884014,0.03290777,0.034428082,0.022274544,-0.04038777,-0.037406344,-0.01466399,0.03417162,0.063830115,-0.014504049,-0.010996744,-0.018869318,-0.09536541,0.026348908,0.015766064,-0.043059215,0.020977123,-0.10779075,0.098227136,0.00022005953,0.037509903,0.052790854,0.08744204,-0.004954938,-0.013282635,0.05745734,-0.046080463,0.01097142,-0.0004931782,0.047981024,0.05478901,0.008834797,-0.10226153,-0.0075228615,0.0010617943,-0.044569492,0.08959591,-0.027464917,-0.10449252,0.0040688473,0.081198104,0.031130845,0.008255829,-0.046009555,0.025495779,0.020357907,-0.029621739,-0.0263414,-0.026484154,0.065872565,0.04004534,-0.06536775,-0.008870623,-0.06741791,0.008308523,0.034216084,-0.016420992,0.07592185,0.00605141,0.009377037,-0.02143376,0.023443181,0.030637171,-0.025199251,-0.04561381,0.055862498,-0.02736413,-0.03011527,0.05983659,-0.0008528617,-0.109015234,0.041520134,0.005462923,-0.040382385,-0.058134492,0.2189397,0.026209038,0.026330227,-0.032721832,0.025614517,-0.0052865897,0.070335425,-0.072110794,0.038492765,-0.028714068,-0.022446504,-0.11658949,-0.044837397,-0.06607714,-0.06604016,0.026256893,0.087071165,-0.010285222,0.055121366,0.09280695,0.008110859,-0.037714507,0.004929486,0.002275082,0.036285926,-0.074614234,-0.12370909,0.012286844,-5.6437265e-33,0.022420479,-0.03722469,-0.039833184,0.088432156,-0.041682094,0.023653802,-0.024053432,-0.03067565,0.026430173,0.0032204776,0.06536507,0.080397435,-0.049481142,0.048030034,0.120799765,0.061954066,-0.06737292,0.013898759,-0.017973235,0.0118144555,0.021747213,0.059156615,-0.06726215,0.013905662,-0.054239,-0.02549982,0.025037747,-0.01832547,-0.04937083,0.0005841175,-0.040979605,0.032382287,0.049151246,-0.059531722,0.026125034,-0.0016657035,0.039446246,-0.04879521,0.0057648844,0.047323037,-0.020472044,0.0060637956,-0.030559584,0.056959834,-0.051377285,0.005836194,-0.021245148,0.02476453,-0.14846717,0.012291499,0.002328401,0.050272238,-0.09561306,-0.012859752,-0.045926172,0.04915264,0.017320666,-0.010975636,-0.028126452,-0.008754964,0.011257752,0.109501265,0.043804042,-0.12114957,-0.03938273,0.0021370412,0.057526127,-0.002245812,0.019607786,-0.03790085,-0.064227626,0.018400064,0.061072484,0.032355588,0.03932769,-0.0004779244,0.07049371,-0.014604977,-0.004577147,-0.0059334827,0.013540265,0.030936202,-0.0140481,0.0034144414,0.03757564,0.0387244,0.015890501,-0.075788036,0.066683985,0.04914467,-0.10599005,0.0016864017,0.043013405,0.04312712,-0.12023339,3.8833624e-33,-0.050407644,0.009781383,-0.003049326,0.05027031,0.09606193,-0.030843403,0.038746648,0.015401913,-0.014217023,0.09434331,-0.06249087,-0.03972946,0.06391213,0.094122246,0.011093274,0.05789608,0.034032486,-0.0052256547,-0.039296556,-0.05019731,0.009737073,-0.005436136,-0.02047543,-0.021239048,-0.07320315,-0.02211849,-0.06950437,0.005749898,0.0147574525,-0.038127884,0.049157154,0.0896153,-0.11310705,-0.0743417,0.018485341,0.06678597,-0.010971729,0.070789136,0.042662647,-0.016977467,0.03287086,-0.02176324,-0.032435242,0.095803864,-0.06229863,0.05539678,0.03625655,-0.013446642,0.041884687,0.034004,-0.11972375,0.057907905,-0.0025733071,-0.055408612,0.00061228516,-0.054876976,0.06796426,-0.02785578,-0.0035973738,-0.029236274,-0.093448654,-0.020667486,-0.0007294465,-0.025855083,-0.005970612,0.0070049884,-0.014400599,-0.022144128,-0.045865376,-0.04824101,-0.026384866,-0.025028987,-0.044797085,0.09557362,-0.027800716,-0.053725746,0.03454268,0.0012014272,0.04876013,-0.011878454,-0.007676816,0.012172036,-0.029054549,-0.042546626,-0.019205231,-0.062493604,0.04352887,0.023896107,0.032833844,-0.07233332,0.016153732,-0.010122555,-0.15114227,0.0028034267,-0.04350263,-1.4182757e-08,0.034693632,0.02727928,-0.030025115,0.100793466,0.022054512,0.035581328,-0.026761964,-0.0056864936,0.0011687397,0.08543542,0.005583159,0.047678627,-0.034742516,0.06788735,-0.020957965,-0.044460077,0.023790728,-0.034888394,-0.059491184,0.027108163,-0.0189249,-0.024934413,0.03230069,0.0079777725,-0.024489189,0.06030488,0.04203838,0.012531546,0.009697497,0.043020565,0.05645942,0.019734373,0.0013274085,0.037168298,-0.045809403,5.5854394e-05,0.04063304,-0.006933688,0.067871414,-0.052716933,0.01816516,-0.057477262,0.016198738,0.077771425,-0.0115318475,-0.091882296,0.06530057,-0.06899759,-0.009047654,0.10597691,0.03560475,-0.0042624106,-0.017248048,0.050159413,0.081413224,0.041787494,-0.004177378,0.047362942,-0.04659296,-0.041945975,0.09170471,0.003342739,-0.104108825,0.025435867
corporate legal,-0.006704673,-0.018077191,-0.02620086,-0.077941634,-0.02668612,0.019469678,0.05382955,0.012412082,0.036655363,0.029563451,0.007870555,0.06689796,-0.10837123,0.002858401,0.04957585,-0.03132491,0.0074712695,0.016596803,-0.02180459,0.036340326,-0.041373327,-0.03072544,-0.05535461,0.07752397,-0.0072377324,0.0063654543,-0.00466937,0.0047658463,0.028139034,-0.11350572,-0.038898986,0.07210908,0.09422611,0.02102162,0.03320332,0.0010122338,-0.03162757,-0.041880965,0.020492021,0.027142512,0.020516196,-0.026219264,-0.026654294,-0.021948596,0.009886374,0.035216622,0.016919503,0.030769322,0.025987528,0.055914085,-0.048287783,-0.03878211,-0.007828106,0.072969295,-0.017478708,-0.09698975,-0.030901093,-0.001295895,0.008240485,-0.04953515,0.07845619,-0.011681362,0.024278728,0.010566879,0.024263598,0.017248694,0.015062315,0.0076328833,-0.09444069,-0.08637021,0.054042995,-0.057984285,0.009875643,0.07603834,-0.049707092,-0.009750356,-0.01203739,0.041387755,0.057827953,-0.11430744,0.02114694,0.024962341,-0.09654019,-0.0020317067,-0.09222467,0.02511573,0.058191314,0.08681136,0.06472424,0.081954084,-0.0022307942,-0.02126734,0.07103307,-0.040316932,-0.09090274,0.009919797,0.025413832,-0.029412892,0.055382814,0.12907168,0.016572522,0.052294552,-0.04766115,-0.022739079,-0.00057970587,-0.003739292,0.038611073,0.028170735,0.06969529,0.036035042,0.004434004,0.066970386,-0.06681704,-0.07854819,-0.029740458,0.07174973,-0.02538982,0.07082602,0.067381635,-0.048121087,0.017384797,0.07217783,-0.048300564,-0.037069704,-0.089281626,-0.09945822,-0.064733595,-3.6263567e-33,-0.10674987,-0.020637697,-0.030004855,0.04097208,0.029414313,-0.012106306,-0.012040713,0.05874626,-0.07547235,0.05399137,-0.05956802,-0.029990673,0.022316346,-0.048773974,0.06336688,0.0032953422,-0.08071944,-0.034166835,0.02225031,-0.021017397,0.0368746,-0.006649901,-0.020358352,0.07593203,-0.08507341,-0.06036965,-0.02459601,-0.0752486,0.045719504,0.016939111,0.08410727,0.067561135,0.080796815,0.015046486,0.09348363,0.06865857,-0.06430987,-0.01503728,0.014150283,0.05717899,-0.08032381,-0.034599714,0.022631759,-0.0063762357,5.702271e-05,0.018469427,-0.05942124,-0.035211142,0.009140845,0.013934097,-0.015963694,-0.019457594,0.020288477,-0.06448578,0.05117402,0.04615426,-0.058988977,0.029480834,-0.04161048,0.025178831,0.002384852,0.14495316,-0.022748584,0.0628874,-0.09304637,0.02411417,-0.0050721923,-0.0077163526,0.057146672,-0.08989526,0.07244859,-0.001726161,0.021010073,0.010630483,-0.08635534,0.011098379,-0.0056877583,0.02983305,0.029093524,-0.020549756,-0.03491838,0.03517191,0.073160246,0.025406035,0.0637927,0.031452354,0.035643652,-0.048578527,-0.014625845,0.1650338,-0.08099343,-0.027462903,0.0021255042,0.07245706,0.015455915,2.119441e-33,-0.029763542,-0.051383596,0.009954398,-0.063209444,-0.04263027,-0.013303762,-0.019438598,-0.022688339,-0.05550471,0.052719604,-0.061702777,-0.06825745,0.011909943,0.07296008,-0.04577301,-0.017909233,0.019583626,-0.09815809,-0.038416382,0.023615941,-0.023952192,-0.009313823,0.043072984,0.07770889,-0.04020081,0.035254568,-0.024748478,-0.008188602,0.05688952,0.031291388,-0.035986923,0.043182474,-0.11745593,0.04130706,-0.034813326,-0.05235904,0.017079933,-0.004526742,0.0101007,-0.102471694,0.03388126,0.028197149,0.024409523,0.047853984,-0.021622464,-0.076860875,-0.005787546,-0.048057865,0.08250456,-0.026973572,-0.067904636,-0.017324494,0.07374894,-0.01005153,-0.015680159,0.0052175075,-0.01769912,-0.043558314,-0.019478645,0.007550229,0.05267118,0.029218104,0.025116254,0.057135265,-0.051839955,0.05247364,-0.019436559,-0.020545648,-0.0039431755,-0.023929883,-0.0017790226,-0.03143315,-0.14150923,-0.043662105,-0.002180526,0.033037983,-0.0013145341,-0.017420685,-0.058563355,-0.065157704,0.0845525,-0.0369282,-0.04781051,0.111813135,-0.03307834,-0.00057135505,0.033377986,-0.031700186,-0.01467104,0.021907747,-0.007157627,-0.031621363,0.0025223447,0.08164115,0.0074853953,-1.3302665e-08,-0.090836935,-0.010477088,0.0011675376,-0.03444949,-0.022487434,-0.045429844,0.0034571155,-0.09020347,0.02403258,0.018665846,-0.04386912,-0.05141958,0.0040171817,0.10470163,-0.05037805,-0.010974472,0.032055564,0.021787249,0.019776894,0.1208739,-0.052725967,0.021656003,0.08373226,0.021983596,0.04061462,-0.014144367,0.064539604,0.053333543,0.061081283,0.091516025,-0.012015237,0.15778576,-0.02610391,-0.037171688,-0.049145684,-0.11173277,-0.014760811,0.049465537,-0.029605,-0.048102975,-0.040509198,0.04277079,0.044469032,-0.025368689,0.008051148,-0.05850292,-0.06299042,0.05645916,0.039827637,-0.02802418,0.043024167,-0.03032567,0.037707604,0.0025303976,-0.015312139,-0.010355399,0.059606276,0.01651416,-0.096292004,-0.0117429625,0.06581731,-0.027345875,0.14058091,0.027668236
meetings scheduling,-0.03312275,-0.007073346,-0.020402594,0.047797102,-0.06762784,-0.02825565,0.040007647,-0.05526548,0.04070078,-0.01696537,-0.07012649,0.025545726,-0.041126,0.06692601,0.03369577,-0.032704607,0.0067954604,-0.019497631,-0.002004282,-0.0062037776,-0.041405324,0.0062876097,0.020321932,0.015162475,-0.031272314,-0.009729011,0.003323776,-0.021345424,0.048143916,-0.022742555,-0.01805883,0.010731679,0.1693327,0.03931522,0.028788272,0.039738737,0.025098458,0.037734717,0.0017939325,-0.011215297,-0.09486999,0.004839354,0.013553299,-0.068418816,-0.073364876,-0.022533497,-0.072790645,-0.0152329905,-0.053357825,0.03842782,-0.017258996,-0.05569035,-0.020254266,-0.016641703,0.034822002,0.16300845,0.012290728,-0.0066895825,0.0033070063,0.029277526,-0.003193585,-0.06798591,-0.123561844,0.06722074,-0.039945237,0.069003716,-0.029885245,0.04954016,0.022078887,-0.0056173624,-0.0600415,0.041530084,-0.042238865,-0.014000077,0.024930373,-0.0048238477,0.037729528,0.00062048755,0.08404102,-0.023540322,-0.0778018,0.0012806562,0.012398628,0.0022825447,0.073379494,-0.11361898,0.015770001,0.06531391,0.011465572,-0.006195012,-0.039463256,0.05529126,-0.054464485,-0.01684686,-0.059412237,0.08329781,0.036426563,0.09541601,0.04486638,0.13613743,0.00017043648,0.0117093455,-0.048269764,0.01147385,-0.06944569,-0.03215339,-0.040463347,-0.024230376,-0.028702715,0.013490175,-0.01097424,0.028725015,0.011224395,-0.052295513,-0.016072964,0.101268694,0.017167017,0.050416898,0.026002167,0.07397315,-0.008963549,0.039876428,0.08052624,-0.039230857,-0.0047146394,0.021953652,0.041067652,-2.813409e-33,-0.022669392,-0.06521465,-0.009291485,0.0062267836,0.108884595,-0.017129822,-0.058051962,-0.02793815,0.059885,-0.055557895,0.014173525,0.024715958,0.06080535,-0.06623067,0.06738083,-0.05648087,0.09487898,0.142418,-0.052948453,-0.09411111,-0.0048970073,-0.119439505,-0.011301796,0.06501897,0.044977397,0.0114987325,0.00948711,-0.03845307,0.077373415,-0.0025805829,-0.0011022523,0.033749543,-0.03887217,0.029069215,0.080676295,0.07532115,0.007640967,-0.00040804397,0.06745498,0.022126805,-0.045449626,-0.024696214,-0.0076221237,-0.04452307,0.050818276,0.03737976,0.016702801,0.02059887,-0.018487496,0.057712816,-0.04535499,-0.015015557,-0.010470415,-0.006623758,-0.024641601,-0.03177467,0.05347182,-0.08153764,0.061001725,0.05281896,0.083714455,0.088489816,-0.0134592205,0.06391583,-0.06865877,-0.02153234,-0.023495689,-0.038977638,0.08241956,-0.037502345,-0.009562369,0.042214025,0.0138607705,0.051013988,-0.032999508,0.028611401,0.06054614,0.02334378,-0.03439207,0.03019626,0.03616395,0.037761286,-0.0020927058,0.006126897,0.004789543,-0.059417002,-0.010334472,0.012201504,0.021017069,0.04693573,-0.0915143,-0.011035509,0.02448942,0.08976718,-0.004692832,2.4880772e-33,0.07859825,-0.01590112,0.0014211158,-0.0048614293,0.07381803,0.025082454,-0.011610459,-0.09227403,0.04499784,0.0062744427,-0.10325284,0.032652956,0.048938796,-0.026278308,0.012610122,-0.035456333,0.121592425,-0.067251906,-0.020000435,0.019440021,0.019087879,0.033015992,-0.051252607,-0.0915773,-0.016141674,0.009447321,-0.010811627,-0.03059503,-0.04513656,0.05569715,-0.08413648,-0.10891455,-0.032771975,0.060437553,0.013214428,0.04612779,-0.058489222,0.05199914,-0.01947324,0.02276259,0.08629052,-0.052702554,-0.0124223,0.012916587,0.03698726,0.023185093,-0.019231161,-0.003563679,-0.13340324,-0.049184132,-0.09035627,-0.037516844,-0.01924648,-0.024059441,-0.02037118,0.021094037,-0.049602814,-0.10920917,0.01765145,0.049970012,-0.010467272,-0.04127738,0.005022795,0.053257015,0.010714971,-0.029386831,-0.041441068,-0.034297537,0.030610463,0.05386497,0.017691728,-0.01877248,0.013926594,0.03341132,-0.059626117,0.03815075,-0.049160022,0.012535885,-0.04185749,-0.027766818,-0.089134276,0.024301095,-0.0034945786,-0.0112248035,-0.11462763,0.03914633,0.06540935,0.03722559,0.005773208,-0.023271497,-0.0067956722,-0.069688395,0.06445786,0.07881569,-0.0010810676,-1.0896523e-08,-0.014066932,-0.022690607,0.030995846,-0.030209577,0.09319776,-0.14243114,0.02897913,-0.032857012,0.040885847,0.077900395,0.09657432,0.004189164,0.031878702,0.081958696,0.020305261,0.041174173,0.02890913,-0.00635174,-0.091957964,-0.061457545,-0.018693376,-0.06303899,0.017399384,0.026315918,0.065699294,-0.0011254165,-0.009039423,0.13490433,-0.011132678,-0.007259667,-0.07991211,0.07872718,-0.055231266,0.040464517,0.017584283,-0.12133132,-0.07067966,-0.025650688,0.027708514,0.0028416014,0.029613791,-0.019452823,-0.009587405,0.02085137,0.03289797,0.040028453,-0.028409675,0.03038499,0.009688585,-0.011951229,-0.060439967,0.025648015,0.04922522,-0.0518052,0.0121762175,0.10024659,0.11874977,-0.046047106,0.028405331,-0.05084423,-0.05167702,0.06918725,-0.09455098,-0.04111925
finance,-0.0064521353,0.02070923,-0.09976998,0.07898428,0.016033925,-0.00021029818,0.09343029,0.023608789,0.048867527,0.016816562,-0.01812412,-0.022023192,-0.074629836,-0.043495283,-0.07932409,-0.069962494,-0.044005476,-0.051065985,-0.04113199,0.0097524375,-0.0905358,-0.009974229,-0.008567939,-0.011595846,0.08506983,0.040280506,-0.0014746046,0.040465396,-0.011261172,-0.105454944,0.014256907,0.04296945,0.13116094,-0.015251529,0.026464028,0.031657755,0.04152397,0.064576484,0.060474172,0.0044973018,-0.07691878,-0.092225134,0.034835115,-0.029291047,0.029014839,-0.036677703,0.033594664,0.032647017,0.04397543,0.06666529,-0.061085932,-0.019264448,-0.07410013,-0.019813396,0.041789625,0.024014346,0.032686006,-0.011894994,0.017834855,-0.03652796,0.039388318,-0.020816121,-0.018967085,0.03130935,0.115545295,0.041709594,0.020148689,0.10051424,-0.07820566,0.0006240721,0.052878838,-0.10534455,-0.09110604,-0.02477309,0.050332103,-0.023794184,0.07645048,0.059781328,0.07211565,-0.032430224,0.029307755,-0.024842685,-0.103656426,-0.032818537,-0.026021494,0.0010033705,0.027225703,0.02923201,0.045176685,-0.01042151,-0.0033706343,-0.03862998,0.052353576,-0.010636557,-0.03846826,0.024584677,-0.032057427,-0.07182836,0.009620375,0.20537269,0.06606004,0.014413368,-0.04280384,0.044084445,-0.0014447891,-0.039714124,0.045875784,0.077145666,0.07539257,-0.007942527,-0.022092186,0.055428356,-0.06107387,-0.04789003,-0.03442321,0.018303925,-0.040907275,-0.017024899,0.07580695,0.048005357,0.0064624525,0.05248792,-0.09166505,-0.028631223,-0.093127705,-0.09761836,-0.10685913,-4.3082e-33,-0.06739529,-0.077758975,0.03291903,-0.028973253,-0.020684723,0.056153443,-0.057058208,0.011645362,-0.11697172,0.11538553,0.011022308,0.026377073,-0.027083678,-0.02992791,0.05564321,-0.013852308,-0.04457593,0.07587988,0.04377314,-0.0071231825,-0.0036990915,0.015959619,0.044467017,-0.036296144,0.066782415,-0.07477812,-0.0074071186,-0.053982675,0.12138391,0.025473854,0.015925128,0.057112575,0.001237747,-0.022179514,-0.045914803,-0.032012206,-0.06512463,-0.035598535,0.004086312,-0.005198777,-0.037191138,0.0093603,-0.023024106,-0.0003488134,-0.021351652,0.06956497,0.060959976,0.054496344,-0.07222699,0.0050359606,-0.08097302,0.024203908,-0.073662736,-0.076503985,-0.007793706,-0.058027282,0.027707497,-0.026094055,-0.0997283,-0.08169209,0.008239011,-0.011632294,-0.04083636,-0.057020277,-0.09024248,0.07935099,-0.02439093,0.043523263,-0.004414327,0.023617642,-0.07964284,0.0048840586,0.046773184,0.04795217,0.043260086,0.015469381,0.025120227,0.0355694,-0.014561022,0.037138987,-0.051184542,-0.013736368,-0.0013470316,0.10924063,0.06105788,0.096293405,-0.02301485,-0.06087583,0.10008741,-0.0050189104,-0.11502816,-0.05201895,0.02798908,-0.014869885,0.053721078,1.6721117e-33,-0.017309578,-0.008950116,-0.057792313,0.032848377,-0.02217543,0.025680423,0.026389578,-0.06805064,0.026115226,0.04642776,-0.044036,-0.00793947,0.028114405,0.02858673,-0.043864626,-0.06524715,0.041062493,-0.087330274,-0.010611598,-0.0146723455,-0.018162606,0.008878049,0.058473848,-0.016391564,0.020135352,0.040389437,-0.06452456,0.012218996,-0.051259294,0.036939494,0.013869419,0.035252064,-0.0053695505,0.022363236,-0.0628903,0.028743891,0.03057149,-0.016806813,-0.025395246,0.04568682,0.08616135,-0.0386889,0.09115245,0.02471957,0.02216821,-0.060449317,0.005012116,0.020454613,0.090655304,-0.0069757337,-0.022450764,0.028506573,0.016200908,0.04361928,-0.07752373,0.06766236,0.036653552,-0.031517766,0.0004773579,0.051581923,-0.03106321,0.069964446,0.033191036,0.11982934,-0.09665828,0.0029346817,-0.034830507,-0.043535277,-0.005748984,-0.028741632,0.05223095,-0.0083128195,0.0062917275,0.06474058,-0.02439564,0.09295444,-0.054377988,-0.03945488,-0.0057210345,0.028054753,0.01774424,0.02433523,-0.008804564,0.05878708,-0.06995869,-0.011528081,0.029907728,-0.040745802,0.0015096726,-0.10126924,-0.030584441,0.020817442,0.0149722,-0.0012069631,-0.08801058,-1.2319701e-08,-0.07333158,-0.063752145,-0.0025607198,-0.032336358,0.06433591,-0.030535923,-0.0011962336,-0.012875283,0.0042027724,0.040325113,0.0009291531,0.039365996,-0.069754004,0.026798781,-0.04295443,-0.035939217,-0.024337403,-0.03265935,-0.00832614,-0.0027978693,0.06172363,0.009224356,0.039660607,0.056024235,-0.0059764227,-0.04423996,0.07465475,0.11473375,0.052697606,-0.0020234312,0.002653068,0.06860114,0.045974117,-0.041509554,-0.048018087,-0.0044987756,0.067339435,0.012547548,0.0009288259,-0.008618224,-0.016621403,-0.035934974,-0.028174859,-0.029441029,0.015575957,-0.011914619,-0.07194464,-0.005928464,0.02888126,-0.114549644,-0.015413061,0.013703876,0.09582028,0.039764628,0.048967253,0.014528633,-0.030658146,-0.0004200164,-0.093777835,-0.039360523,0.084081404,-0.076938696,0.069288775,-0.020272313
operations logistics,-0.039846063,-0.038740758,-0.03965803,0.002328196,-0.03472673,-0.09426927,0.09120444,-0.009245423,-0.05947295,0.036508236,0.03925598,0.019372348,0.002601789,0.058573663,-0.042627443,-0.016081626,0.007642632,-0.028609553,-0.12533304,-0.11505628,-0.030061804,-0.007994977,-0.022094863,-0.014649273,-0.010644388,0.042717062,-0.09831675,-0.03584052,-0.042965952,-0.11442778,-0.03343704,0.016572142,0.07148475,0.051657785,0.022152657,0.08982792,0.045688067,-0.02468166,0.07130516,-0.015040502,-0.03240693,-0.022905437,-0.030429427,0.047611613,-0.0024362835,-0.01057,-0.008075867,-0.039080817,0.04937006,0.012363013,0.009311121,-0.02833109,-0.047957256,0.017199073,-0.0122044375,0.053606566,0.05789434,-0.02985673,-0.03659518,-0.046888627,-0.0032424075,0.023359584,-0.0034364352,0.021835754,0.039567523,-0.040438265,0.012820876,-0.00090214156,-0.063609205,-0.049269807,0.015110625,-0.058843542,-0.026524113,0.10275772,0.042732798,-0.0019619917,0.11595113,0.0006756185,0.006417192,-0.04018312,0.011117575,0.032723565,-0.073200025,0.031219225,-0.04900751,-0.045967918,-0.0014769264,0.043790884,0.06150024,-0.0023710544,-0.008871561,-0.094293445,0.028721549,-0.026819788,0.025614163,0.03933897,0.0019159219,0.020040823,-0.019607509,0.058311727,0.068355,0.041929368,0.017560372,-0.068559065,-0.08673448,-0.012780413,-0.014588112,-0.022131803,-0.028343022,-0.00995341,-0.036149535,0.03739555,-0.05585681,-0.04468695,-0.06586071,0.03789365,-0.01506993,0.008062464,-0.018555699,-0.049057204,0.015351256,0.039829116,0.047581203,-0.025872208,-0.043948196,0.018452477,0.053763885,-3.5484898e-33,-0.09200912,-0.07027387,-0.027027655,0.033440325,0.08233059,0.020444496,-0.032669898,-0.015850289,0.069731556,0.07190855,-0.13169909,0.091435686,-0.021291422,-0.023950897,0.046329536,-0.12240678,0.03061287,0.09337876,0.0400645,-0.013266809,-0.0642281,-0.1033419,-0.03708899,-0.01625187,0.15082535,-0.00734923,0.029518764,0.004902363,0.061756082,0.003432759,0.03621808,0.073861524,-0.031085743,0.036731683,-0.024757644,0.05511727,-0.06281446,-0.030921416,0.019273654,-0.038053475,-0.0518128,-0.020181065,-0.053500257,0.06884917,-0.07379796,0.074044794,0.028032081,-0.0116808405,0.014124752,-0.01844945,-0.05717783,-0.007942021,0.06574333,-0.051423997,0.04193877,-0.032672707,0.13391642,-0.082700744,0.02774635,0.026114073,-0.0020100726,0.05041144,-0.021206556,0.05899179,0.04713416,-0.07316944,-0.009533424,-0.006448277,0.044290423,-0.01838902,-0.04143087,0.006560459,0.069899276,0.03627863,0.039030023,0.04016002,0.00159899,-0.0032971927,-0.05768596,-0.060861174,-0.06380751,0.02815534,0.02850005,0.023004452,0.100070246,0.0061284844,-0.0040933937,0.019242205,-0.021380594,0.0475778,-0.08620072,0.028347513,-0.022496048,0.07438335,0.062148903,1.3190498e-33,-0.009337111,0.09566072,-0.01543391,-0.017516779,-0.014534152,-0.0060050176,0.05006465,-0.11147233,0.073399045,0.021750879,-0.16890454,-0.010425192,-0.002688851,-0.014166458,0.03581754,-0.035814002,-0.012266429,0.004962846,-0.021383787,0.022937642,-0.018869624,0.034232467,-0.1007518,-0.01998545,-0.016364586,0.05729973,-0.032079045,-0.022222137,-0.001632611,-0.0042213034,0.02397604,-0.08282183,0.044723723,0.05221542,-0.03712126,-0.012756151,0.012309208,0.13794218,0.0654574,-0.027078206,0.0511639,-0.05773599,0.020997379,0.058737833,-0.041275557,-0.07826624,0.0009033189,-0.06698329,0.022250293,-0.018328335,-0.07245638,0.049188044,-0.038264908,-0.024278995,0.0030483103,0.12419853,-0.049059197,-0.008717742,-0.046782,0.013777063,0.022013796,0.03371023,0.0732999,0.01666784,-0.06141883,0.03868665,0.0949166,-0.10441464,-0.05163113,0.03344583,0.04059576,0.040453438,-0.024845017,0.04118974,0.048947576,-0.07858391,-0.059604127,-0.012584451,-0.030584972,0.06820237,0.050068043,-0.04545799,-0.005899982,0.09188784,-0.06816468,-0.020898335,0.1331555,-0.00660074,0.021049311,-0.035112754,-0.05701725,-0.009863867,-0.00425501,-0.0055318107,-0.010381733,-1.1607558e-08,-0.047374684,-0.008446792,0.05730461,0.013063087,0.0026227587,0.018278122,0.031692047,0.09588027,-0.019284815,0.009003677,-0.055037048,-0.0009834316,-0.058219563,0.07268133,0.0051092496,0.008202173,-0.01702075,0.04163765,-0.015885146,-0.091312684,0.061472867,0.017684689,0.043234464,0.08494516,-0.0032601885,-0.004696476,-0.00088964665,0.0021524986,0.10014773,0.077123895,0.061986674,0.036839675,0.030701362,-0.0036277033,-0.06477068,-0.08696898,0.011011555,-0.01855815,-0.004444927,-0.042287763,-0.07710863,0.0101614185,0.041801713,0.025629649,0.069574974,0.01167383,-0.13265835,-0.02697903,-0.006316489,-0.07409221,0.041316107,0.015938096,0.04483891,0.12408894,0.048913274,0.005807624,0.012135185,-0.074438974,0.03453389,0.07750762,-0.063556306,-0.046059843,0.07328585,0.0010159918
projects,-0.07220179,0.020764425,-0.006912813,-0.0008890887,0.017434081,-0.035570856,0.08004034,-0.0014102674,0.0072144293,0.02599782,-0.0153908655,-0.041488532,-0.0033173282,0.02642682,-0.04629433,0.016412264,0.0066678217,0.021465296,-0.0086766705,-0.0724112,-0.020946968,-0.00021311079,0.03698126,0.03468093,-0.022376986,0.08888783,0.026624782,-0.0066998033,0.016453408,-0.084392175,-0.07230959,0.062202945,0.046828162,-0.02354476,0.037888188,0.12510985,0.016607,0.024519831,-0.00057793723,-0.031070897,-0.10963656,-0.04169383,0.04332723,-0.032207068,0.0046324325,-0.060868707,0.047903493,-0.07385191,0.0009483227,-0.010939606,0.0006149607,-0.084229924,-0.07585628,-0.06749038,-0.028138865,-0.050571226,0.009046914,0.0069714407,0.02749424,-0.033411466,0.103665754,-0.003629355,-0.100188635,0.006026738,0.07346111,0.0398345,-0.0070312875,0.12876527,-0.026808176,-0.037756853,0.04129793,-0.0021292192,-0.024720911,0.0018143863,0.10888068,0.0064788396,0.035386235,-0.0057626185,0.08148031,-0.061024386,-0.0028173698,-0.05494035,-0.031185094,0.07154834,0.03599778,0.0049649533,0.020619215,0.058892533,0.027494036,-0.016297705,-0.01597731,-0.07104871,0.012211834,0.025717556,-0.05124547,-0.031530358,0.027434016,-0.028308097,0.017046537,0.26550335,-0.058541216,-0.0001856964,0.08441967,-0.00998294,-0.040376086,0.0026350962,-0.034720942,0.020842388,0.0434456,0.026006773,-0.07460501,-0.041273765,-0.03383615,0.0048018447,0.059639104,-0.037994735,0.0028822396,0.019530071,-0.049897805,0.0011674353,-0.017380942,0.011388053,-0.016462304,-0.011085212,-0.079778366,-0.049713727,-0.0673161,-5.247306e-33,0.06299614,-0.010217873,0.020229653,0.1325836,0.039683547,-0.06251738,0.063901976,0.08752949,-0.04401384,0.023438245,0.07750742,0.05281772,-0.02430366,0.06295457,0.15569612,-0.071822785,-0.015146206,0.046512835,-0.055597898,-0.027704464,-0.085857555,-0.06344361,0.05265673,0.03200013,0.064328484,-0.010413145,0.047494303,-0.071871035,-0.0132604325,0.035505246,0.042161807,0.066538155,0.007519731,-0.02371506,-0.06237354,0.052688338,-0.01769783,-0.12512231,0.053408,0.04412138,-0.003338678,0.027723774,-0.014760188,0.011068642,0.07913178,0.004448193,0.069322124,0.036629155,-0.0064541125,-0.004980303,0.004610534,0.0096660815,-0.0858507,-0.039499212,0.040768925,-0.025849877,0.008198658,-0.024090854,0.055966903,0.027330142,0.049606882,0.05097319,-0.102709375,-0.031473532,-0.017580258,0.13250911,0.0006397013,0.021050418,0.10428994,-0.014710108,-0.11169916,-0.024582734,0.05419863,-0.027953118,-0.015007354,0.03229909,-0.0414127,-0.0106659895,-0.07988235,0.082662314,-0.035832606,-0.02991841,0.021911992,0.0058412356,0.01307111,-0.0034280706,-0.016928734,-0.03469666,-0.05320696,0.025222866,-0.057404734,-0.0050919973,-0.04582739,0.014993579,-0.004547041,4.346063e-33,-0.05981306,-0.01259925,-0.080583595,0.03461649,0.117508344,0.0022453868,-0.045127384,-0.088867575,0.05902878,0.10671604,-0.08511375,-0.059280872,0.02543267,0.021957334,-0.04262625,-0.020736942,0.072371066,-0.07152065,-0.061131462,-0.0025670454,-0.08124766,0.110804856,-0.016107779,-0.0770811,0.0103334095,0.036149297,-0.047381617,-0.082787484,0.021638922,-0.030864902,0.039328232,-0.06919555,-0.12836772,-0.049092725,-0.068999775,0.09126915,0.009393923,-0.0021089672,-0.041906357,-0.027010405,0.10021812,-0.055045627,0.044242825,0.06483388,-0.049839407,-0.025892096,-0.033786304,0.043264523,0.008850023,-0.013642864,0.0070118774,0.05609384,0.021468323,-0.06044371,0.05897987,-0.038585264,0.0017451736,-0.0144779775,0.043254305,0.050998297,-0.007735894,0.006293411,-0.030773606,0.05756107,-0.045823038,-0.025884647,-0.020732705,0.06377302,0.030128153,-0.03531025,0.027842497,0.077891506,-0.022269335,0.060913462,-0.10480843,-0.06598922,-0.04497248,0.03694378,0.032430265,-0.032806497,0.0113552,-0.06278776,0.017025659,0.023004107,-0.009778916,0.00972192,0.04639654,-0.01778762,0.017059814,0.002113708,-0.059485283,0.019094337,0.030043712,0.06791419,0.0131232515,-1.23064785e-08,0.05096993,0.058619287,0.0065719453,-0.0074031386,-0.02476593,0.02203592,-0.06420504,0.08377961,0.01591853,0.061599027,0.0069706817,-0.0057795173,0.020985782,0.09767847,-0.032565936,-0.09855018,0.011547866,0.042187575,-0.042176314,-0.0674333,0.024040243,0.0434851,-0.022098193,0.028394096,-0.017232168,-0.07050931,0.04984867,0.041584473,0.024152542,0.029135514,0.0038338676,0.059808724,-0.02182642,-0.050801404,0.04731953,-0.009735642,0.033336986,-0.013337024,0.023612933,-0.015062091,-0.013933184,0.012059948,0.040752057,0.015279825,-0.012489724,0.020874605,-0.061437055,-0.031718586,-0.042863864,-0.02868364,-0.055509485,0.033555705,-0.0065763653,0.047834016,0.04671276,0.08054211,0.03346593,-0.03909459,-0.0419728,0.04209431,0.08813251,0.026709588,-0.039546367,0.010842944
